100 64
95 0.03274868 -0.18460447 0.08087974 -0.3859302 0.22003756 0.31108633 -0.09373726 0.083164245 -0.15758243 -0.089576684 -0.030122193 -0.25272378 0.22808014 0.22976458 0.12605214 0.7254281 0.32212007 0.017794132 0.53077203 -0.2914377 -0.75956124 -0.40105128 -0.23155336 0.25061733 0.61780685 -0.40616632 0.17171472 0.42188612 0.25741163 0.20662934 0.041951213 0.08163266 -0.3170886 0.16318406 -0.11833304 0.3464407 -0.16469194 -0.36114565 -0.23149836 -0.006363246 0.21661595 -0.36914495 0.70452714 0.323 0.6489623 0.26236424 0.0965029 0.03021698 -0.33716762 -0.31692755 -0.29967064 -0.3892111 0.30674636 0.06737757 0.0027119596 -0.043358665 -0.46055418 0.41035977 0.74878824 0.0038104584 -0.0624522 0.051812556 0.042894755 -0.074435286
58 0.37573674 0.40782154 -0.32380983 0.3020083 0.3570115 0.5365194 -0.23165788 0.113009945 0.13910182 0.6927482 -0.09391466 -0.11465161 -0.24905112 -0.09579536 0.39990193 0.4428904 0.35805154 -0.29824996 -0.110232994 -0.5915786 -0.56710774 0.16859005 0.102972835 -0.14010264 0.3390961 0.43608463 0.45467207 0.11418112 -0.04970467 -0.3124654 -0.11510192 -0.22380671 0.2251203 0.043482076 -0.18629858 -0.19647907 -0.35717025 0.004299365 -0.049169853 -0.44027665 -0.09569692 0.047155455 -0.058603674 0.069004476 0.26379701 -0.22063737 -0.36272064 0.07266549 -0.4829536 -0.17722556 -0.069703214 -0.43367222 -0.53370446 0.10196985 0.006926158 -0.3109932 0.051881902 -0.29295146 -0.33597615 -0.15097898 0.36085662 0.10307937 -0.16213585 -0.56637436
98 0.12752473 -0.069090866 0.32396308 -0.5157698 0.094827354 -0.09776334 -0.21186234 0.046867575 -0.20645021 -0.14498349 -0.26104286 0.07433411 -0.4673653 0.04781893 0.4000766 0.14584163 0.2792882 0.48465502 -0.19562781 -0.54295605 -0.38809177 0.103378125 0.113317944 -0.21620122 0.14212489 0.3791269 -0.3773452 -0.36631164 0.24305299 0.023630269 -0.055380113 -0.061373472 0.161301 0.48317853 -0.109620415 -0.21356164 -0.14755906 -0.12178894 0.17308594 -0.18975416 0.03634682 0.21494819 -0.49648535 0.025592078 0.03153455 0.43725026 -0.34562698 -0.14015768 -0.34218803 0.06703262 -0.02949263 -0.18607591 0.2441865 -0.0967095 0.05499742 0.0008346286 0.07112621 -0.19793823 -0.3377173 0.6229172 0.09389863 -0.21582377 -0.15392306 -0.472985
47 0.29796278 -0.5494427 -0.0530808 -0.07618194 0.46716702 0.17896117 -0.11722752 0.06125702 0.26916486 0.140778 -0.011585781 -0.31880775 -0.05805198 -0.08692864 -0.025820889 -0.075051345 -0.2501177 0.007295482 0.644337 -0.29332063 0.018679408 -0.16362418 -4.5383305e-05 0.07031366 0.12819809 -0.3353058 -0.2143163 0.058103837 0.05393838 -0.21511662 0.12697977 0.27892414 0.19617696 0.045816533 -0.11040973 -0.30756047 -0.18445241 0.36864418 -0.120736 0.22609831 1.0912935 0.2132822 0.5435434 -0.06879266 -0.033443853 -0.22989547 -0.22258782 -0.21196832 0.2663675 -0.13175905 0.4976638 0.3015879 0.25724816 0.45765212 0.13731058 -0.24604024 0.43754554 0.11019469 0.570328 -0.2542755 0.111817114 0.43527177 -0.15050022 0.18909377
90 0.7037838 0.052730206 0.39229903 -0.047286104 0.0589268 0.044219203 -0.25752056 0.08290646 0.26404917 -0.16448015 -0.1407334 0.22940423 0.10258589 -0.0056072795 0.4768464 -0.39224866 0.19548734 -0.35769442 0.25778753 -0.42286637 -0.094383515 0.10707783 -0.14599691 0.39378646 -0.03649014 -0.2489563 -0.013941681 -0.33644688 0.5267907 0.5126823 0.28519863 0.21455897 -0.34524852 0.085039936 0.13344868 -0.4312094 0.34627253 0.15985118 0.18063995 0.30924535 0.3122017 -0.4264561 -0.3493543 -0.3247923 0.112944536 -0.039973795 0.22677554 0.20973527 0.096620224 -0.21737187 0.15611409 -0.10331871 -0.11430526 0.5611308 0.5179743 -0.19173852 -0.040512253 -0.14165482 0.2606436 -0.3205869 -0.14981708 0.28642535 0.04318843 -0.25486112
99 0.29094625 -0.07489476 -0.40165648 -0.44329426 0.31154907 0.028520757 0.23113298 0.22443356 -0.38656822 0.6207562 -0.07022163 0.14607047 0.38683954 -0.2496972 -0.22284329 0.040528484 0.08364422 -0.39324126 0.44433522 -0.40992782 0.19213143 -0.5607137 -0.4857036 -0.035592917 -0.05080104 -0.31426126 0.18449458 0.068260506 -0.028869059 0.17211598 -0.31833422 0.10269105 -0.18550853 0.121923305 0.10488275 0.13846628 -0.46213624 0.046644203 -0.30546093 0.031200942 0.22576612 -0.23987779 0.030903859 -0.1917744 0.43209997 0.017250836 0.24413143 -0.13700731 -0.47451377 -0.06614425 0.552506 -0.6258611 -0.46128726 -0.004476555 0.61352265 -0.06104026 -0.15467475 0.15823132 0.66616267 0.4582025 0.031082474 0.58543754 -0.18285012 -0.491739
84 0.5141613 -0.066151515 -0.12471888 0.25364658 -0.095129095 0.47512692 -0.007925772 -0.2351568 0.58096594 0.5728548 -0.59113955 0.18747732 0.57860774 0.4294278 -0.37260455 -0.38050497 0.65160584 0.64723074 -0.37541905 -0.108457915 0.0293265 -0.20436402 0.4294514 -0.51106536 0.051721636 -0.24667634 0.30807087 -0.21543612 0.6744039 -0.067827165 0.07352817 0.23847738 0.12803271 -0.1845214 -0.4829732 0.5622969 0.5604303 0.05534557 0.8982223 -0.39503273 -0.12323226 0.12340492 -0.18671563 0.4090977 0.016993942 0.5170788 -0.591715 0.5448607 -0.16966884 0.3852334 0.2360789 0.3412163 0.40047014 0.011439045 0.0992031 0.39814654 -0.58265597 -0.45370033 -0.40676782 -0.03603157 -0.3499966 -0.36161453 0.21711929 -0.12346222
39 0.06225357 0.13569935 0.213796 -0.108334176 -0.08796588 0.4335918 0.27751145 -0.03593516 -0.57879716 -0.06346619 -0.146352 -0.1495506 0.12314103 0.17560874 -0.106967874 0.32330787 0.45842475 0.01698657 -0.51861197 -0.4392016 -0.5153828 -0.49390823 -0.608274 -0.16431965 0.39049122 0.44637382 -0.12458738 0.15449373 -0.08343618 0.12788354 -0.11891722 -0.045577653 -0.8243711 0.12186348 0.29586893 0.4343474 -0.04424055 0.049114216 0.25196037 -0.08650804 -0.2898156 -0.3292894 -0.63723844 0.1801268 0.11413446 0.5642416 0.19415087 -0.06959959 -0.6263175 0.019845953 -0.4017057 -0.32135075 0.055804145 -0.3465851 0.048275582 -0.4461087 0.02301483 0.32910892 0.45787656 0.38772276 0.008640612 -0.1700952 -0.0607931 -0.48095384
52 -0.29357 -0.10176785 0.10449231 -0.58922315 -0.07041142 0.073602274 -0.26645958 0.18275775 -0.21397066 -0.101227485 -0.30501813 -0.14402896 0.24382882 0.08915238 0.4825163 -0.30812737 -0.4565958 -0.12886918 -0.19799024 -0.61309296 -0.34649202 0.09063946 0.14288452 -0.65114063 -0.014587384 0.043578036 -0.27091104 -0.18298952 -0.26410833 -0.29717848 -0.29833442 0.068379655 0.7958405 0.32461527 -0.18899475 -0.1444173 -0.17636724 -0.07195795 0.38622633 0.3105684 -0.112370044 -0.02293355 -0.3404185 -0.15546498 0.1427819 0.27680942 -0.44071943 -0.5876277 0.16465166 -0.0633981 -0.18229038 -0.38127887 0.2591487 0.094910435 -0.049452193 -0.092258886 -0.2004378 0.033964667 -0.14051038 0.372961 0.021619152 0.08527002 0.049509495 0.19722573
93 0.45880914 -0.1333498 -0.39105156 -0.12650889 -0.019318312 -0.4047932 -0.7065754 -0.18957964 -0.13631935 -0.20665084 -0.36887056 0.34747973 0.5995939 -0.35273165 0.6055345 0.060294304 -0.52911407 -0.18703441 -0.47881827 -0.21511045 -0.10597195 0.084506616 -0.14979346 -0.21271239 -0.17155804 -0.49823734 0.1377392 -0.5964355 0.26546392 0.10800031 0.13226555 0.06096205 0.10415402 0.060637742 -0.12358575 0.1401635 -0.22301441 0.10960557 -0.28396073 0.5076404 0.3239139 -0.009275031 0.21873225 0.24414708 0.28985992 0.06385537 -0.12555 -0.56157804 -0.04013366 -0.05305049 -0.1860648 -0.7674799 0.03625666 0.17038688 0.19232278 -0.18891053 0.23111111 -0.23048547 0.47498044 0.139452 -0.13576888 -0.13873234 -0.12535024 -0.7156687
7 0.49308145 -0.32678828 0.0077747167 -0.15852365 -0.18431915 0.29909533 0.095409475 -0.55864614 -0.35604632 -0.17573862 -0.59064126 -0.38929114 0.0033860442 -0.15663537 0.17605361 0.39608857 0.23180631 0.5061583 0.09667227 -0.48922178 -0.53272593 0.6870316 0.30699265 -0.08032949 0.26660258 0.036492515 0.16576241 -0.72636116 -0.0036936884 0.11552552 0.5257496 -0.15386571 0.25342014 -0.28243136 0.3073852 0.1558581 0.6532414 -0.07583728 0.2341149 -0.015987974 0.050882064 -0.11738454 -0.42712453 0.28585738 0.16533734 -0.29366708 0.106369115 0.44471744 -0.22044806 0.019583179 -0.042900518 -0.37414372 0.6133758 -0.31794176 -0.34699446 -0.0721945 -0.115686685 0.12599267 0.50029624 0.12330948 -0.38889948 0.047069054 -0.09993898 -0.10324849
79 0.37547725 -0.4092899 0.0146042295 0.13846882 0.17839514 0.35348517 -0.38509807 -0.2016547 -0.2487603 0.06570311 -0.051333994 -0.23682325 -0.22092609 0.3548291 -0.3409745 0.39168575 0.6232939 -0.17852096 0.035447493 -0.42786586 0.08503162 -0.025983777 -0.22154737 -0.28233764 0.32811815 -0.20384677 0.27087417 0.39626458 -0.31742075 -0.26246828 0.39009255 -0.16557969 -0.2540118 -0.12395034 0.77220184 -0.36309355 -0.03879081 0.47417334 -0.040712815 -0.03072811 0.190417 -0.3706061 -0.03594593 -0.20990323 0.18457292 0.061755892 -0.43531096 0.061732434 -0.19203304 -0.35393402 -0.030219872 -0.8294271 0.6694015 -0.0062641343 0.16539282 -0.5764381 0.27098832 -0.05419822 -0.19603701 -0.37711817 -0.21548845 0.3056891 -0.39246762 -0.044996582
31 0.3397522 -0.39710718 -0.27731043 -0.23976718 0.35687315 -0.26984492 -0.22448015 -0.07413243 -0.09373642 0.32918975 -0.31512162 0.08319702 1.0700116 0.10288648 0.17256528 -0.14224511 -0.5579738 -0.0009667749 -0.050027 0.4736644 0.39323807 -0.20894335 -0.032546084 -0.72412664 -0.18351372 0.08133379 -0.1635115 -0.17633279 0.27784443 0.13701345 -0.08710717 -0.12653658 0.6841849 -0.21529359 -0.29063383 0.033858217 -0.18660967 0.19567545 0.28142098 0.08000403 0.14505497 0.44105944 -0.33579743 0.23054203 0.17162527 -0.40170234 -0.45144045 -0.34347388 -0.1996034 0.15931958 0.5955181 0.18979932 0.20457636 0.39503074 0.45812935 -0.19367836 0.3230634 -0.17454442 0.10225758 0.20631938 -0.19642955 0.030174594 -0.18759541 -0.43106815
43 0.2038819 -0.32480574 0.11609056 0.4505253 0.25699696 -0.02264274 -0.29249153 0.37715542 0.9040279 0.09462544 0.006780898 -0.08929677 -0.13388316 0.38946888 -0.017539917 0.13724008 -0.3912382 0.31213242 0.35424238 -0.52460444 0.5969265 -0.29140887 -0.26049942 0.37218195 -0.15440518 -0.1945581 -0.57218736 0.23427324 0.12117367 -0.21429572 -0.51158977 0.19950849 0.5049158 0.39585048 -0.042924114 0.07934398 -0.07090291 0.28727475 0.04685637 0.3417547 0.17770468 0.23060998 -0.046130255 -0.2194107 0.24564515 0.43673915 -0.3712668 -0.4688929 0.8130895 -0.07135744 0.40058926 0.17331831 0.08863278 -0.2130597 0.22899528 -0.08251457 0.4539409 -0.3429292 0.46370152 0.0951752 0.47270635 -0.10796768 0.40565985 0.3945902
78 0.0056643602 0.25068316 -0.05219181 -0.03256884 0.12743472 -0.2524333 -0.94758844 -0.08163027 0.14920248 0.15741625 -0.33826584 -0.085415624 -0.19313426 0.75703454 0.49414447 -0.14407893 0.07221981 0.8175611 0.04214084 0.044958223 0.23288494 0.18196893 -0.4704152 -0.78806657 -0.066479065 0.5142721 -0.34243944 -0.34119147 -0.09434541 0.71196556 0.22728668 0.2749579 0.058789887 -0.3077766 -0.05340116 0.25366437 0.2408275 0.07292087 0.16500579 0.041396182 -0.12534401 -0.5022365 0.20538805 -0.20951135 -0.31558707 -0.38149056 -0.5091173 0.13485174 0.52970743 -0.07346448 -0.25278914 -0.31901002 0.48983768 -0.19288191 0.27032626 -0.06004896 -0.20323469 -0.025489468 0.10402844 -0.13678855 0.3838639 -0.3071953 -0.45154384 -0.4163724
37 0.09834504 -0.121940345 -0.39136848 -0.5125298 0.21052472 -0.23283099 -0.100825615 0.1465838 -0.4403269 -0.09760174 -0.1586083 0.16430448 0.17918585 0.23541085 0.47033682 -0.14608778 0.07907404 -0.07016183 0.17008233 0.053371646 0.22765337 -0.27719805 -0.44056308 -0.04640987 0.29088917 0.09605484 0.08491787 -0.15528594 0.2627143 -0.24509442 -0.34881905 0.44774544 -0.09109672 0.007935204 -0.49055335 0.0134015605 -0.07427029 -0.009031169 -0.1459161 0.13918307 -0.039313473 0.13026349 0.5332764 0.40436614 0.38299888 0.017092614 -0.20051597 0.15298618 -0.120748214 0.14415853 -0.34550497 -0.20483455 0.4238559 -0.25536722 0.43626517 -0.31239104 0.49955016 -0.36643285 0.8447235 0.36959788 -0.13068007 0.18669678 0.26226708 -0.574892
46 0.050705004 0.22826263 0.6270828 -0.1921691 0.46661904 -0.3704706 0.21778397 0.19118047 -0.20872365 0.7282221 -0.46190912 0.4966787 0.23743118 -0.22877799 0.17517048 0.018031595 -0.16739272 0.05876653 0.18537109 -0.61747855 0.15553069 -0.15502387 0.42044944 0.07744278 -0.20673728 0.039111957 -0.7883205 -0.22791462 -0.3825737 0.09601769 -0.37315044 -0.17054684 0.064891875 -0.06744477 -0.18388404 0.291591 -0.11725947 -0.07109106 0.69998556 -0.30000842 0.7131113 -0.0038047286 -0.43547457 -0.40927127 0.6385421 -0.15233217 -0.10872542 0.04107597 -0.026843399 0.024036657 -0.26477683 0.070846096 0.2104066 -0.11685395 0.0068170377 -0.13204974 -0.18865038 0.020165196 0.117367886 0.2744559 -0.05514971 -0.041048765 0.4214418 -0.07106178
16 0.38624254 0.23624247 0.34090534 -0.018801024 0.3286213 -0.38837716 -0.014747515 0.6288813 -0.12551154 0.676196 0.15967949 0.26137137 -0.25848642 0.5629398 0.36130753 -0.5896413 -0.16308941 0.043471325 0.2674348 -0.42592907 0.19859457 -0.1638771 0.009045463 0.17102332 0.030463608 0.38866925 -0.6753463 0.024542214 -0.24532922 -0.044378042 -0.3654106 0.31145585 -0.0937169 0.29609022 -0.7645799 -0.3252236 -0.28025085 0.102497615 0.18273981 0.0036175856 0.34895968 -0.08525055 -0.47812307 -0.29389372 -0.078064844 -0.18001387 -0.09797537 0.07160319 0.27166006 0.21914068 0.18264434 0.42360723 0.0047466783 0.40990838 0.6719222 -0.07464308 0.14670236 -0.22025661 0.14839597 0.59301764 0.060881212 0.50921905 0.052377842 -0.2581824
74 0.37698826 -0.11073285 -0.050768424 -0.42320076 0.3460375 0.17144963 -0.19094501 0.05632069 0.408782 -0.17640018 0.050607096 0.13344488 -0.031706695 -0.6981848 0.038854185 -0.21179588 -0.1747108 -0.6672104 -0.22110535 -0.34285757 0.11215735 -0.031839408 -0.03571674 -0.0490581 -0.038528107 -0.13475554 0.258738 0.00030228833 -0.05636723 -0.40432018 0.2132149 -0.07441025 -0.35182756 0.4015606 0.08748037 0.28565896 0.49646294 0.07224653 -0.09810462 0.16553186 0.047866207 0.27370948 -0.18108916 0.6498668 0.93553704 0.3021111 -0.84356034 -0.06322662 -0.019217972 -0.5069162 -0.22496942 -0.384412 0.18808122 -0.16871834 0.6479622 -0.41957748 0.19631174 -0.1375023 0.49538347 -0.08608916 0.6255211 0.13313788 0.0938652 -0.10661932
70 -0.08047634 -0.045240767 -0.17090496 -0.1957204 0.28162003 -0.09388195 -0.35360223 -0.29108807 -0.4781128 -0.33750167 -0.23281786 0.26473984 0.36406112 -0.12536618 0.66576767 -0.22248873 0.059925642 -0.2006415 -0.25884622 -0.044947628 -0.18654272 -0.3379024 -0.70785224 0.00601651 0.37735233 -0.16048987 -0.04488384 -0.5259518 0.5404843 0.011158284 0.16631731 0.50833625 -0.18678518 -0.006276362 -0.3425319 0.055127174 0.04858002 0.34832662 -0.14686655 -0.13465938 0.4450039 -0.033620454 0.3596097 0.13619399 -0.37517387 0.30205742 0.45301148 -0.51138884 0.31178308 0.20448497 -0.5508245 -0.1414847 0.013037944 0.4445495 0.30820432 -0.29348516 0.47686416 -0.09368068 0.7816286 -0.33345383 -0.14833184 -0.02493578 -0.24540478 -0.36689183
26 0.2501559 0.01146339 -0.17847265 0.30147463 0.39397016 0.5552718 0.19613631 -0.14922678 0.16582431 0.10342856 -0.32792312 0.032146666 -0.0913964 -0.07600766 0.71434146 0.27891797 0.397174 -0.4769408 -0.009363325 -0.6792569 -0.1976173 -0.4910337 0.07401307 -0.0679951 0.4538132 -0.2541796 0.67148495 0.5694185 0.8214562 -0.42308003 -0.32514915 0.04216528 0.39279008 0.16026437 -0.100265555 -0.11694761 0.2863906 0.3290677 -0.0879943 0.039012168 0.10683981 -0.1563843 -0.049322993 -0.05163557 -0.5963387 0.028623559 0.14055026 -0.26574445 -0.19391741 0.2750517 0.21951488 0.18928707 -0.0074053025 -0.036427993 0.86024475 0.028526615 -0.1632159 -0.024884202 -0.004542034 0.2712639 -0.3430916 0.15377723 -0.37200043 0.15375993
77 0.33488363 -0.2709759 -0.30710456 -0.08386651 -0.04231656 -0.08581354 -0.025445027 -0.48000303 0.25754416 -0.0074038925 -0.15535513 -0.37494048 0.24329808 -0.0796682 -0.2528691 -0.51488876 0.1742691 0.3782417 0.47486717 -0.12295619 0.39337867 0.036194693 -0.45067826 -0.07762953 0.19716139 -0.40797132 -0.13707781 -0.45966583 0.1773937 -0.086069725 -0.05269869 0.24021567 -0.20451383 0.36241022 -0.021900253 0.48436657 0.64498276 0.2547463 0.06526563 0.047923844 0.05090985 0.088420935 -0.2735721 0.14071806 0.00012806928 0.15892617 0.5315894 -0.15709043 0.26036683 0.23195325 0.71702886 0.24928455 0.044942576 -0.15364198 0.4515202 0.18529803 0.25134572 -0.3005709 0.5598629 -0.06378338 -0.37384692 0.34466547 0.017419435 0.0766264
38 -0.3457709 0.043685913 0.2761365 -0.21612395 0.31631935 0.056358352 0.24913895 -0.12753907 -0.06675548 -0.15065494 -0.32580355 0.12112309 -0.3618598 -0.591963 0.54327095 0.021973137 0.5914254 0.06847244 -0.20256498 -0.6802799 -0.07089771 0.38008854 -0.3251533 -0.08183756 -0.17431483 -0.040055506 -0.09380468 -0.14037992 0.12062765 -0.045082606 -0.33631834 0.76948225 -0.22912516 -0.22427742 0.18402357 0.26778212 0.07028373 0.20757444 0.2674187 0.030065935 0.35711294 0.065820865 -0.31405744 -0.27937898 -0.3912373 0.35438085 0.0847299 -0.17197485 -0.49806774 0.20979778 -0.1366771 -0.07002803 0.1738906 -0.45550078 -0.015766522 -0.6049145 0.09549831 -0.062467918 0.44585925 -0.5769656 -0.09181601 0.09290454 0.02909955 -0.098942004
73 0.15936288 -0.18763597 -0.03022688 0.09323027 0.17050876 0.47630432 0.021950366 0.3022839 0.31491044 0.6899752 -0.18184812 0.095031455 -0.10064487 0.0029004584 -0.38295668 0.077709004 0.7353337 0.20771383 -0.008680457 -0.33636454 -0.06969778 0.013570521 0.13199776 0.33367655 0.28405765 -0.0058965376 -0.030135678 -0.32472908 0.11403457 -0.24619369 0.29696202 0.41077405 -0.20513004 0.21259944 -0.44210348 0.1932178 -0.25623077 -0.18583244 -0.1530973 -0.727028 0.3573952 0.24253753 -0.38380903 -0.04275534 0.5176002 0.6457071 -0.024915066 0.16729529 0.16618279 -0.28508088 -0.48079357 -0.18590194 -0.23231265 0.39892882 -0.3270742 -0.06342327 -0.05532968 -0.10321828 -0.4486983 -0.62341285 0.39413142 0.12393974 -0.19697969 0.02653645
66 0.0982211 -0.31644252 -0.2895091 0.4072016 -0.24318941 0.470277 0.0029765712 0.1398994 -0.11435677 0.554653 -0.17201835 -0.13292807 0.15082332 0.14469928 0.48112217 0.051740885 -0.050464775 -0.58255774 -0.15546374 -0.5435308 0.33074734 0.2991941 -0.5259615 -0.6706206 0.047820374 0.16213879 0.43409154 0.23453043 -0.25096872 -0.49256232 0.005752961 0.9989667 0.6975196 0.015643658 0.27524835 -0.0788514 -0.42599097 0.25656042 0.12204315 0.72744215 0.12092162 0.098164715 -0.6068729 -0.34353238 -0.40051663 0.28263137 0.65961474 -0.65648377 -0.074665226 0.35371697 0.05205735 -0.01683946 0.2406326 -0.20396134 -0.51608634 -0.65143406 0.79942703 -0.2042217 -0.14531586 -0.25955692 -0.19626637 0.19514 -0.4034159 0.51041865
62 0.18123949 -0.47782815 -0.28940672 -0.11394833 0.11451879 0.4043214 -0.1651538 -0.16058336 -0.13236605 -0.26227394 -0.45348877 0.022874447 0.93673575 0.4268494 -0.11037444 -0.21092387 -0.2767946 0.50993955 0.11621048 0.049165767 0.05449808 -0.3302519 -0.65245 -0.29008 0.12835366 0.24966004 -0.031061443 -0.2815366 0.006630512 0.18702692 0.13694368 -0.11403827 -0.30308655 0.0958191 0.17837894 0.1487557 -0.13979398 -0.27555665 0.53515387 0.49046633 0.11213166 0.033155404 0.5298072 0.37813768 0.16527198 0.70303077 -0.21290743 0.16966005 0.015055641 0.103368044 0.06711444 -0.0042302166 0.3316491 0.05294281 0.00088269153 0.08146784 0.25902247 0.030020649 1.0125284 0.3190371 -0.7381813 -0.368797 0.32070917 -0.23071474
64 -0.30515257 -0.4832786 -0.16082247 -0.15848742 0.2050663 -0.32406864 -0.3499866 -0.18307096 -0.16944544 -0.1404453 -0.11997729 0.7236812 0.474669 0.5682746 1.0091797 0.037508503 -0.46902546 -0.025420498 -0.09524697 -0.018883036 0.2546972 0.2452656 -0.22525933 -0.7568449 0.026485898 -0.20718996 -0.6439069 0.0006393754 0.048049595 -0.04014485 -0.57502407 0.03705728 0.3359934 -0.025851196 -0.55996966 0.06099854 0.045842096 0.24306647 0.30441865 0.35776496 0.41037568 0.43683594 0.2624976 0.16292986 0.2822486 0.05733525 -0.20259358 -0.43261713 0.21251465 0.19633445 -0.11493392 -0.026849333 -0.0753478 0.18366699 0.19173123 -0.1421666 0.09371904 -0.3675316 0.47586098 0.20376238 0.14688113 -0.49521798 0.3478144 -0.12071823
51 0.31235832 -0.11323746 0.11125035 -0.12918197 -0.05896109 -0.31423023 -0.21558723 -0.45173115 0.015059919 0.12311969 -0.49648738 0.24894275 0.28454193 -0.117923334 0.24436891 0.14195105 0.15070736 -0.49106753 0.012708406 -0.4051378 0.3417636 0.42914078 0.09738556 -0.57504296 0.04431508 -0.38134983 0.4512189 -0.14400913 -0.100661635 -0.031023055 0.09729243 0.4372091 0.44822133 0.1355991 -0.06610525 0.18576957 0.08125817 0.0146081 -0.18852718 0.43896514 0.022702642 -0.64860976 -0.7269545 -0.2887831 0.05943875 -0.2938198 0.556906 -0.084651366 -0.60597456 0.09167884 0.28517863 -0.23339853 0.15071484 0.29485098 0.15440857 -0.10134293 -0.206861 -0.09494842 -0.21841526 -0.14833403 -0.44027194 0.5735917 -0.10489216 0.0896714
96 0.20291296 -0.14425191 0.08093601 0.12815623 0.33095875 -0.1548287 -0.16109413 -0.52616024 0.38657773 0.36639008 -0.17957112 -0.21183719 -0.03570119 0.3284619 -0.29258007 0.24374466 -0.14779224 0.027759798 0.25256544 -0.10847989 0.5074133 0.0377958 -0.23719119 -0.356669 0.8816006 -0.108891554 0.1412381 0.18351395 -0.41641364 -0.31221327 -0.02405163 -0.46662644 0.1718067 0.51068014 -0.21061821 0.1075847 0.1331315 -0.06960742 0.061320845 -0.07898513 0.09524871 -0.43437117 -0.08088131 0.21344383 0.36720234 -0.12029278 0.017762553 -0.5191677 -0.10478218 -0.19583884 0.3384499 0.13979308 -0.108298354 0.3796898 0.30979106 -0.19287226 0.12857705 -0.1256276 0.043013815 -0.0051610726 0.3073363 0.11664182 -0.07252246 0.40867364
45 0.425166 -0.026190655 0.18380886 0.8183251 -0.09794781 -0.06941877 0.17609338 0.16035959 0.07492914 0.18235046 -0.42933995 -0.7671352 0.14829145 0.61796707 0.43674797 0.7251784 0.22827874 0.7130923 0.6391273 -0.2819121 -0.14494558 0.18728767 -0.3065803 0.66195834 0.6405416 0.34147933 0.26331624 -0.24874389 -0.29778248 0.1038119 0.34683377 -0.109388955 -0.422256 0.06815526 0.14584792 0.39058945 0.014438468 -0.24814615 0.46618855 -0.6708595 0.2763818 -0.34073943 -0.06455523 -0.09620355 0.108074374 -0.12719984 0.41540068 0.43873522 -0.24521226 0.5182496 -0.50428647 -0.048195276 -0.09694246 0.124540925 -0.3267326 0.106449254 -0.068184696 0.16771428 -0.21930426 0.08793995 -0.054589495 0.0378597 0.37822348 -0.06429639
10 0.47498685 -0.21026516 -0.091034964 -0.31153128 -0.093618885 -0.10613449 -0.068124704 -0.31814992 -0.22674736 0.34240103 -0.53367335 0.04025882 0.41209716 0.36997855 -0.05764985 -0.516375 -0.11622091 -0.09895217 0.22243582 0.063191615 0.533428 0.4012576 -0.29363498 -0.40890813 0.20703605 0.34498113 0.34396854 -0.3330112 -0.44884363 0.043056995 0.41222432 0.16722535 -0.28755197 0.1853987 -0.07874635 0.10779338 0.06295342 -0.603943 0.28158942 0.3689892 -0.008786454 -0.2533274 -0.31315538 0.36198038 0.36678123 0.124564275 0.01508601 0.25395346 -0.48108736 0.3133267 0.2476081 -0.07634413 0.048524544 0.37064505 0.50829285 0.11673509 0.055968955 -0.15090634 -0.00082958955 0.19326141 -0.67942226 0.43281487 -0.25229564 -0.16575885
50 0.0967921 -0.13055916 0.1592206 -0.11646905 -0.027059456 -0.42485842 -0.15801539 0.1505969 0.11012712 0.18899167 -0.3598296 -0.3699337 0.3297622 0.40900874 0.28082937 0.46961936 -0.022075506 0.62228614 0.9057144 0.13239029 -0.38082862 -0.065857865 -0.04818116 0.37981635 -0.19053109 -0.081750356 -0.36891153 -0.21779913 0.30965355 0.11123553 -0.17541517 0.3982574 -0.08672622 0.13365793 -0.5915013 0.30666387 -0.7512472 -0.20871522 -0.011387607 0.021549014 0.70800394 0.30285928 0.3489306 -0.24087994 0.38393268 0.033134516 0.01800394 0.27947602 -0.34571382 0.2253798 0.10326709 0.23002844 -0.04990112 0.4429735 -0.11022684 0.31996402 -0.042975638 0.1322645 0.5460723 0.11536193 -0.076671086 0.45972806 0.5114468 -0.110556275
11 -0.23380075 0.027434355 0.20559596 0.020045098 0.26044917 -0.28256804 -0.464984 0.18717696 -0.3206022 0.4023976 0.008561268 0.23349363 0.40399313 1.1597127 0.5070831 0.0035811088 0.14554805 0.04375597 -0.25732356 -0.10511811 0.3177266 0.10494437 -0.15131304 -0.21940589 0.2663867 0.22211884 -0.66585624 0.06275431 -0.1059744 -0.076760985 -0.114574425 0.24879162 0.29878592 -0.36143062 -0.7495228 -0.21191451 -0.2003865 0.24392836 -0.11421544 -0.14340413 -0.106623374 -0.12060258 -0.791049 -0.07140896 0.33967692 -0.48363954 -0.029478017 -0.030087452 0.6978219 0.20250787 -0.36122033 0.40722045 0.58402336 0.43369845 0.057025835 -0.18846755 0.1730165 0.21167855 0.257475 0.21864365 0.59093696 -0.04730888 -0.12094379 -0.26165992
20 0.2632914 0.028136192 -0.4259722 0.1241437 -0.2744164 0.27764228 0.1221331 0.17305075 0.4589591 0.39827198 -0.38696694 -0.18302117 0.023974296 -0.08023874 -0.23674805 -0.4135282 0.28292972 0.3633055 -0.4504384 -0.51970136 0.2418062 -0.42759705 -0.6653195 -0.35259262 -0.15944842 0.08568685 0.49896505 -0.43445143 0.15422373 -0.039353784 0.055683512 0.7608017 -0.34191167 0.21610302 0.5815281 0.5959817 0.28581718 0.04113778 0.45668876 0.282578 0.20047553 -0.33271205 0.14145763 0.08842729 -0.20862886 0.6365665 -0.00046296773 -0.02983559 -0.6180728 0.08618755 -0.47423244 -0.42858437 0.22333439 -0.84367734 -0.2646388 -0.34100488 0.1273997 -0.25410864 -0.044301976 -0.031120403 -0.11280551 -0.32115608 0.0409308 -0.29076114
94 -0.19656251 0.16060266 0.31929123 -0.21192427 0.27541596 0.32058394 -0.068205595 0.12122467 0.39724234 0.539308 -0.6758934 0.15647519 -0.26235676 -0.31318742 0.18745813 0.22896898 -0.07966327 0.27921158 0.59429276 -0.5294501 0.0022374047 0.018124906 0.34901088 0.009464677 -0.04671753 0.32589522 -0.46800068 -0.25422293 -0.0023339763 0.12288984 -0.060440682 0.24545799 0.57293755 0.0012862565 -0.53219396 0.35219607 0.304108 -0.1735953 0.2241635 -0.21902704 0.55350906 0.09516693 0.22143188 -0.20232685 0.37133604 0.21660893 -0.067863256 -0.0065704742 0.49880043 0.03494423 -0.33749315 -0.35603088 0.23008184 -0.07083521 -0.08633235 0.42138153 -0.25366327 0.19836953 0.086083345 0.017532185 0.14243065 -0.23733667 0.0096828565 0.49431974
41 0.27996993 0.1635953 0.07158116 0.12842394 -0.36642316 0.16701455 0.44082174 0.01720873 -0.5569255 0.11025697 -0.19871151 -0.61054796 -0.07198807 -0.064724736 0.43785134 -0.04802997 0.06396307 -0.31192037 0.09711103 -0.49741256 -0.56401664 0.47189558 -0.029258948 -0.07196167 0.5870102 0.548477 0.19673757 -0.44068593 -0.40655056 0.16907267 0.17629202 -0.028815314 -0.42082685 0.2921072 -0.39447203 0.10863284 0.29453593 -0.21926172 0.23591226 -0.13319176 -0.2592684 -0.04776542 -1.2449311 -0.044095203 0.0282328 -0.14896855 0.7026279 0.20078394 -0.42878422 0.23073375 -0.28265128 0.110067986 -0.1986022 0.2924241 0.035082173 -0.0121516595 0.13650756 0.34481364 -0.105174586 0.2665921 0.05899932 0.070887126 -0.020524984 -0.366313
4 -0.44419807 -0.09370347 -0.36242884 -0.009746081 0.029846758 -0.035555262 -0.3749751 -0.0638078 0.18218797 -0.11085156 0.119268484 -0.32249433 0.032896947 0.13314976 0.5928378 0.06955964 -0.011795166 0.08502109 0.08283484 -0.48445576 -0.35408837 0.059145767 -0.42262045 -0.71991885 0.5795626 -0.17927326 -0.12984364 -0.2980468 0.03566464 0.233909 -0.010025849 0.05627877 0.07989725 -0.06184906 -0.009555809 0.40953347 0.67111576 0.10529091 -0.636229 0.1525365 -0.11507637 -0.39867392 0.4261377 0.24984789 -0.02770284 -0.26092467 0.3104989 -0.597036 0.25525358 -0.66004837 -0.25271723 -0.48504174 0.114683814 -0.05805356 0.09107762 0.013501172 -0.26124406 0.63121045 0.5240852 -0.2643541 0.23205884 -0.4227891 -0.17551444 -0.35488683
40 -0.26062015 -0.585983 0.17161325 0.30302036 0.3131789 -0.4875705 -0.2615816 0.16859101 -0.074099645 -0.13285984 -0.14016533 -0.4517543 0.058822744 0.5201263 0.42283228 0.16747111 0.53995925 0.18805057 0.016109979 -0.09779051 0.293331 0.05949573 -0.42319962 -0.2460146 0.33686307 -0.012469054 -0.52479804 0.1658437 0.25716943 -0.06018503 -0.23478809 -0.064268835 -0.393915 0.016803533 -0.19714786 0.25123194 0.20819423 0.2726361 -0.58009756 -0.66502386 0.1637315 0.39742157 -0.53303236 0.06238335 -0.4016063 -0.11201548 0.034077115 -0.25047496 0.017903015 0.0755698 -0.035779018 0.55374837 -0.11596977 0.28292236 0.69974583 0.23462716 0.067585886 0.15628198 -0.2520685 -0.2679413 0.03695455 -0.3176031 -0.28032273 -0.16488154
21 0.17852905 -0.06473285 -0.24799034 0.01751198 -0.3027824 -0.41999504 0.1967555 0.10540019 -0.3211521 -0.055678073 -0.35153502 -0.7948187 0.47834274 0.0800084 0.89453405 0.65711176 0.01397714 0.10264872 0.4394885 -0.3016672 0.029995114 0.6015554 -0.23312594 0.5632248 0.1999699 -0.35166726 0.38258603 -0.15439504 -0.23190387 -0.3747689 -0.33811074 0.18009831 0.32096976 0.42562616 -0.08675442 0.15335177 -0.1546976 -0.2405815 0.15265377 -0.31434095 -0.41188478 -0.18424535 -0.6634105 -0.22250806 0.4458227 -0.23166835 0.6868768 -0.003662569 -0.21562558 0.362194 -0.028896403 -0.45327652 -0.031301327 -0.40146858 -0.5562323 -0.4177852 0.15670739 0.0117766345 0.047639303 0.5261395 -0.04297055 0.62766993 0.6205519 -0.5951664
27 -0.17927286 0.16699712 -0.37312976 -0.37281865 -0.15236668 0.33380422 0.16600147 0.22438762 -0.06881722 0.5432797 -0.25770178 0.06355681 0.44716188 -0.30653375 -0.23829183 -0.24676932 -0.2917971 -0.27392706 -0.18082285 -0.29920828 -0.0051501337 -0.28602633 -0.10024514 -0.4944218 -0.2986466 -0.1171533 -0.5514487 0.011506067 -0.04907232 -0.35970375 -0.38194036 0.37069333 -0.34313816 0.22519033 -0.37008712 0.6024719 -0.010789432 -0.17611788 0.07740785 0.511659 0.1705674 0.1326495 0.01898331 0.046556525 0.79469347 0.62401754 0.10145407 -0.4056219 0.09020964 -0.251851 -0.5476784 -0.6203409 0.46482787 -0.5253114 -0.022921348 -0.35625443 0.23803477 0.19927351 0.42292696 -0.026837677 -0.47120172 -0.23360866 -0.1124217 0.13073002
29 -0.19309697 -0.7614586 0.19346263 0.216539 0.08760041 -0.05836307 0.23520347 -0.2111919 0.5471537 -0.2569963 -0.24825001 -0.4141876 0.24573645 -0.104678325 0.11901063 0.7865151 0.58564407 0.17566946 0.18959303 -0.17397922 -0.11830635 0.00378543 0.05619292 0.47589102 0.37289333 -0.5190497 0.3899208 -0.07084215 0.7721464 -0.107166864 -0.1222258 0.43963942 0.51248014 0.1626675 -0.084099635 0.54180294 0.19743054 -0.053027224 -0.46222946 -0.46347296 0.14260884 0.16512057 -0.51621836 0.14398402 0.050274562 0.33325374 0.31744036 -0.12222919 -0.39851925 -0.32823405 0.14110471 0.28095102 -0.022134187 0.31651613 -0.2081619 -0.07960046 -0.0750445 0.11146222 -0.0074828775 -0.511563 0.17129469 0.24945429 0.14310943 0.027640423
36 0.09355619 0.14835066 0.065791 -0.67735827 -0.06850551 -0.65814894 -0.27037913 0.21811743 0.46974945 0.049971297 -0.46396652 0.14424376 0.45061144 -0.16319461 0.25955117 -0.28233498 0.08881701 -0.33253008 0.25068033 -0.26945752 0.5038096 -0.04171929 -0.4449955 0.47105315 0.0010909323 -0.2949163 -0.17566793 -0.91923606 0.18479787 0.52036685 0.2505723 0.4553581 -0.010450677 0.5783474 -0.07784846 0.38034075 0.43798715 -0.07055175 0.051961772 0.13553381 0.0572667 -0.49201226 -0.37229243 -0.1158848 0.4041612 -0.021989847 0.22893491 0.05015842 0.5080493 -0.39642307 -0.42132112 -0.6090514 -0.46290827 0.24540927 0.3588643 -0.053059645 -0.30799842 -0.0075189066 -0.08779333 0.39313135 0.23754989 0.619715 -0.18764807 -0.041006554
59 -0.20534697 -0.31228563 -0.08516036 -0.11951774 0.3073182 0.3816777 -0.46731696 0.05022201 0.9022905 -0.5929191 -0.24484426 0.07241574 -0.23025733 0.052268356 0.85641813 -0.36014602 -0.0013314104 -0.32142904 0.21906495 -0.5154473 0.23680131 0.73645186 -0.6371096 -0.22329512 -0.2086115 0.43956465 -0.07194124 0.22987613 0.21742178 -0.20234314 -0.3029496 0.083602495 0.16374242 0.78221357 0.08155248 -0.73643583 0.2922713 -0.39858127 0.1002498 0.6603215 -0.15292673 0.18243003 -0.010033383 -0.13071336 0.020131195 0.6473113 -0.38108698 0.0024640646 0.14057927 -0.1836978 0.14512591 0.09002251 -0.16536781 -0.068847716 0.5760562 -0.102742344 0.39196804 -0.3946197 -0.30567378 -0.1365744 -0.11106651 -0.19983098 0.16406381 0.11364452
25 0.1750064 -0.007462406 -0.3432183 0.29822895 0.21758686 0.63578963 -0.34096086 -0.16346498 0.5578237 -0.40663156 -0.17908272 -0.51148224 0.2641559 0.4602491 0.1322223 0.18053353 0.111843966 0.8626581 0.46695247 -0.31661084 -0.028509852 -0.32730538 0.06612671 0.32123595 0.46933007 -0.5802378 -0.27503762 -0.13144943 0.58213276 0.05098056 -0.2590778 -0.38458532 0.14563215 0.35533962 -0.6287559 -0.27319908 0.7355518 0.3176572 0.17025054 -0.49966308 0.123067476 -0.03808279 0.066931255 -0.34244353 -0.053429447 -0.36030903 0.20686121 -0.14928627 0.83512205 0.38159922 0.08289245 -0.1479348 0.39904746 -0.30210006 0.5452417 0.00085260725 -0.30301878 -0.08022917 -0.6861155 -0.048250098 0.35804605 -0.4142961 0.055695534 0.04778025
67 0.15487115 -0.7999421 0.08248732 0.16250153 0.37876108 0.539869 0.63883775 -0.021993406 -0.4083603 -0.10185559 -0.08232082 -0.40600738 -0.67182386 -0.15193306 0.14673881 0.57420725 -0.005644108 0.35478014 0.51282084 -0.9078719 -0.2102096 0.3412989 -0.118940674 0.11323934 0.51054204 0.21933457 0.05494316 0.05859483 -0.7054268 -0.09680699 0.030444037 0.14837937 0.17505515 0.26429373 0.26914966 0.08983524 0.046653144 0.13698411 0.2300964 -0.033394445 0.83999217 0.53118134 -0.46599296 -0.026632054 -0.3079589 0.024238635 0.27985698 -0.056023873 -0.32468146 0.56218976 0.08424695 0.28113973 0.12290167 -0.4602156 -0.17203405 -0.26581666 0.2819101 0.09491366 0.102484845 0.14752722 0.5422218 0.07817503 -0.22540718 0.558496
89 0.5340757 0.117098525 0.012220169 0.2987553 -0.13209744 0.8857971 0.10554772 -0.060992178 -0.13034007 0.12777519 -0.0751387 0.024664063 -0.38305494 -0.14451014 0.21324207 0.12927626 -0.36715135 0.29556015 -0.0325258 -0.09947304 -0.2467493 -0.71150213 0.6098479 -0.48690233 0.18723667 0.0670906 -0.04206597 -0.20601654 -0.22366698 0.28523144 0.006706156 -0.1088763 -0.29112086 0.11311328 -0.4285582 -0.052929614 0.45542702 0.59588236 0.5164766 -0.023683334 0.6545518 0.38928232 -0.1470049 -0.5088133 0.0038846661 -0.3195124 -0.35524845 -0.08598144 0.2051914 -0.29903877 -0.44437814 -0.58828 0.3844487 -0.05254265 0.6945059 -0.5875941 -0.45910788 -0.10254977 -0.705 -0.24097882 0.7928961 -0.43698296 -0.3123108 0.03404345
53 0.12372478 0.091711655 0.221279 0.59163016 -0.14210637 0.16681245 -0.17128462 0.220254 0.3023613 -0.05861475 -0.06692288 -0.7186344 -0.2571975 -0.5826285 0.56856847 -0.045506768 -0.2504386 0.15113096 -0.06442599 -0.17900825 0.1902234 -0.3644761 0.11849124 0.16726153 -0.15023877 0.3802299 0.067595065 0.33792743 -0.23397051 -0.782201 -0.5239583 0.116014674 -0.47003826 0.49915808 0.1913826 0.1855614 0.50127876 -0.010219615 -0.53630835 0.20836027 0.006545966 0.013345302 -0.44824833 -0.20260957 0.15433384 0.14770934 0.064612426 -0.53377205 -0.12141923 -0.7554164 -0.1318074 -0.2490768 0.33321136 -0.34614897 0.5521421 -0.23067357 0.36007455 0.21589862 0.0011599048 -0.4229995 -0.13123634 -0.001552589 0.31923562 -0.53604925
83 0.18678266 -0.030118166 0.17392197 -0.3094237 0.43300158 -0.35447377 -0.39354828 -0.20726371 0.077069074 0.009062616 -0.4530694 0.086747855 0.5544529 -0.13012874 0.48775142 0.6277415 0.28469503 -0.4076874 0.08278164 -0.28410652 -0.0019836158 0.054837156 -0.2034544 -0.28118736 0.28102124 0.078918 0.47838438 0.1030008 -0.025689771 0.2814397 0.29500568 -0.26061022 -0.486447 -0.0485358 0.37637267 0.087225236 0.41700527 -0.505936 -0.15528056 0.62789464 0.1598638 -0.26891574 0.34360793 0.8473667 0.6134169 -0.5279778 -0.14739488 -0.24414904 -0.45699608 -0.39462692 -0.070960574 -0.122634195 -0.11734292 -0.2946575 0.37694088 -0.34054583 0.09535416 0.40082255 0.54556084 -0.20885779 -0.06324358 -0.5062552 0.42357913 -0.6146057
61 0.14817643 0.024906341 0.2856954 0.53126395 -0.28599322 0.40533307 0.013724159 -0.046230897 0.46867555 -0.12961449 -0.1650848 -0.10775799 -0.028807463 -0.067178704 0.22596957 0.47491768 0.28572905 0.17619069 0.24883263 -0.41632926 -0.2192116 0.84642357 -0.08850676 0.31527153 0.0025048938 0.13321562 0.019674627 0.03849862 0.23032169 0.51461077 -0.018599875 0.7901828 -0.19546683 -0.15293582 -0.58761716 0.29494897 0.22643182 -0.30036122 -0.3453698 0.3863955 -0.3601603 -0.4535773 -0.9287935 -0.13500534 0.12450711 0.39161944 0.7392792 0.17488477 0.28122243 -0.02113555 0.28981596 0.040814735 0.30525374 -0.10008281 -0.26689196 -0.34997568 0.15487078 0.34955516 0.5012417 -0.6320713 0.36095223 -0.31449538 0.2451937 -0.41001007
33 0.37715587 -0.122765236 -0.4016228 0.099389136 0.2573229 0.017367022 0.16438979 0.070802145 0.015717473 0.32843244 -0.40899348 -0.4989805 0.12015462 0.280536 0.1694896 0.0026478355 -0.58764225 0.34609926 0.8103868 -0.02993465 0.65114135 -0.2957967 -0.27599713 -0.058563158 -0.21695015 0.5507553 0.11136696 0.12763615 -0.33273444 0.0230149 -0.2333107 0.14619577 0.18714169 0.31425962 -0.16311066 -0.19280402 -0.17498736 -0.44970238 0.15636909 0.5159623 0.2361853 0.27219838 -0.06609432 -0.29990503 0.0024743874 -0.33336824 0.111007445 0.028250031 -0.3583511 0.3793676 0.65376335 0.09938533 0.19356354 -0.2049503 0.6514616 0.013467861 0.6244869 0.17607822 0.11068493 0.55912435 -0.28528538 0.36486748 -0.0021870094 -0.07251066
13 -0.07657459 -0.4165828 -0.8538332 0.24023545 -0.22447409 0.054656725 0.26638186 0.27096546 0.33328286 0.15927029 -0.21061108 -0.8557389 0.4172714 0.06292472 -0.11185788 0.07015543 -0.26509562 0.886771 -0.03474987 0.28110585 0.23238328 -0.009966802 0.39723966 -0.005369555 0.033611998 0.08971122 -0.04178348 -0.39116725 -0.06837993 -0.56554437 -0.18594941 0.14780284 0.43832558 0.017668901 -0.5323785 0.54103154 0.3772129 0.025672937 0.14838493 -0.12694271 0.22042951 0.5917798 -0.46053612 0.15867619 0.37683842 -0.14946175 -0.6150607 0.11975268 -0.054801762 -0.39856026 -0.23872179 -0.0739702 0.43728727 -0.17591287 -0.22118913 -0.19434673 0.3190347 0.18805888 -0.30988592 0.2591128 0.839013 0.063111864 0.11699365 -0.319515
91 0.36205626 -0.1370612 -0.20851403 -0.19705738 0.24266753 0.2463529 -0.5971703 -0.22510119 0.5371399 0.285648 -0.6984352 -0.17822452 0.16501905 0.24497133 -0.2157791 -0.14178732 0.21087475 -0.061160244 0.4217983 -0.4283807 0.21633472 -0.039912503 0.024239577 -0.5143899 0.24229549 0.48190734 0.7424741 0.3220029 0.16396008 -0.30962458 0.376794 -0.16862066 0.72957975 0.29699063 0.37525254 -0.1999573 0.3450302 -0.52532643 0.034781694 0.6656605 -0.1584515 -0.699322 0.31355813 0.37883633 0.22567257 0.07086541 -0.5566426 0.20949502 -0.34314466 -0.24638213 0.48439336 -0.101711504 0.45272654 0.291032 0.33076882 0.5863492 0.017071659 0.020847565 0.07178594 0.4526646 -0.52468044 0.00021842253 -0.11000268 0.27369148
88 0.27161756 -0.34378585 0.07083312 0.24450125 0.47232667 0.120216794 -0.30582428 -0.1661515 -0.17955022 -0.1754683 -0.21570377 0.17089024 0.039206915 0.84283316 -0.084825605 0.5507141 0.11388466 0.7955803 0.16569819 0.028992297 0.253343 -0.19760078 -1.0413275 0.022223623 0.40552267 0.44052333 -0.4770778 0.035301942 -0.16891597 0.16639245 -0.07980471 0.21212825 0.057043117 0.23826082 -0.061731316 0.14476201 -0.50901663 0.3861247 0.21663731 0.13932508 0.28214484 0.006777772 -0.18711098 -0.005502899 -0.3741688 0.27559832 0.16744293 -0.42602322 0.20096408 0.8707885 -0.030342573 0.30031484 -0.032991417 -0.4013566 0.1286658 -0.33412737 0.6093529 -0.4770762 0.33377463 0.14653584 0.23351516 -0.031545214 -0.22045694 0.35800278
15 0.2816506 -0.113189064 -0.107459895 -0.49325132 0.04380571 -0.13354379 -0.5757099 0.12695673 0.5185497 -0.42879736 -0.1842963 -0.7348471 -0.76529115 0.11371609 0.030736608 0.06905913 0.10707423 0.9359088 0.16402586 -0.28737396 -0.21207152 -0.16495755 -0.13329268 0.08560927 -0.00747978 0.14618921 0.05435509 0.13467059 0.42468777 0.22843902 0.08050061 0.06782912 0.37896526 0.7184361 0.4209534 -0.023429843 0.05607337 -0.29984224 0.29069784 0.52111655 0.074532 0.1127826 0.15829465 0.07871677 -0.08831699 0.6240752 -1.1162426 -0.31705445 -0.12045352 -0.42974278 0.17967671 -0.5000573 0.61966676 -0.3429221 0.49628317 0.059734 0.15367179 -0.14517058 -0.3736946 0.5859673 0.4478378 0.18053693 -0.49863538 -0.16094221
57 0.26390323 0.15222377 -0.27268565 -0.6798924 0.48044825 0.33850318 -0.23122145 -0.3932152 -0.51291156 0.683518 -0.42758244 0.032086477 -0.10638185 -0.06304351 -0.5101158 -0.35611024 -0.12111631 -0.20848759 -0.01976036 -0.53903997 -0.14996226 0.3185868 0.29203135 -0.75176406 0.8999758 0.108195424 0.05978693 -0.6040055 -0.7968239 -0.3829795 0.21750477 -0.732082 0.3752103 0.4363196 -0.5194852 -0.17901598 -0.2926652 -0.0747192 0.41410747 -0.5496853 0.13118477 -0.1931991 -0.30784747 0.17066585 0.5008315 -0.23531553 -0.3232765 -0.32956484 0.43988466 0.2506715 -0.30185822 -0.14288417 -0.03691746 0.17464595 -9.683378e-05 -0.36912128 -0.05384174 -0.24835117 -0.41721377 0.23196104 0.18729123 0.2720444 -0.41945037 0.31762624
68 -0.047610592 -0.34900552 -0.4301008 -0.88261276 0.34715223 -0.3429137 -0.13676758 -0.31226858 -0.46673578 0.38628167 -0.5242179 0.12116936 0.4268492 -0.09410826 -0.15277211 0.1667504 0.48875517 0.3190219 0.07442527 -0.5129947 -0.48698413 -0.063983075 -0.106898814 -0.7993976 0.12113085 -1.0986176 -0.02175169 -0.34444585 0.32820892 0.0621827 -0.40953118 -0.020800535 0.3444066 0.13578294 -0.24969852 0.36634538 -0.6619369 0.16852239 -0.011434728 -0.43793276 0.78552336 0.08343852 0.5522892 -0.095503636 -0.055699334 -0.07725916 0.08954205 -0.32464448 -0.71675044 0.60938895 -0.00013070108 -0.22731349 0.0027220706 -0.3477496 -0.046903744 0.03526403 -0.51398057 -0.27401677 -0.2019455 -0.019789038 -0.17567782 0.049348854 -0.21735501 0.040376354
3 0.259052 -0.40030274 -0.10425224 -0.09358676 0.122511506 0.4097008 -0.39207536 0.6466879 -0.2565566 0.5800755 -0.46084714 -0.2621394 0.21022874 0.22486304 0.4217651 -0.30439305 -0.3449497 0.22461672 -0.2670106 -0.42194608 0.556155 -0.6733587 0.6780787 -0.12972404 -0.4036998 0.29269892 0.22852299 -0.42918414 0.19084612 -0.9716132 0.116651095 0.49595398 0.5877388 -0.018983874 -0.36516583 -0.84651196 -0.33458662 0.18659915 -0.43096912 -0.16935217 0.78907067 0.20511632 -0.19496463 -0.56079763 0.020612571 -0.78017163 -0.28547648 0.35380954 0.16166525 0.12384794 -0.70461273 0.32489482 0.97438794 -0.27105862 -0.14727613 -0.37950948 0.4688369 0.0127296755 -0.5291019 0.30452165 0.30040762 0.052102927 0.006246321 -0.3400877
81 0.26792505 0.1630269 -0.023050914 0.31825414 -0.09968194 -0.10072201 -0.115443505 0.37209973 0.4726721 0.58587897 -0.4241777 -0.90280336 0.2673451 0.014232141 -0.78729266 -0.71122074 -0.15648139 -0.042872954 0.27171093 0.0716381 0.23466627 -0.77495277 -0.65372825 -0.90058905 0.18161653 0.7340972 -0.28882152 -0.28507757 -0.21646938 0.19858417 -0.15155475 0.1660102 -0.17844602 0.65278924 -0.31449422 0.30831477 -0.14475614 0.20336093 -0.3215968 -0.2998197 -0.15295486 -0.73983425 -0.27619258 -0.4477553 -0.6031284 -0.13877134 0.2580638 0.0032816923 -0.09131285 -0.48195782 -0.054064352 0.5891887 -0.2304414 0.23336925 0.3544202 0.057470713 0.08740295 0.14822002 -0.35244173 0.086576976 -0.37478268 0.02658048 0.032246683 -0.16192591
2 -0.0071709054 -0.49455693 -0.04636975 0.010305191 -0.08960653 0.50414497 0.107424475 -0.30036375 0.34159273 -0.26569927 -0.046202555 -0.04175312 0.48162496 -0.011903967 -0.029672334 0.035287187 0.61082625 -0.23680411 -0.18565571 0.055550456 -0.34712702 -0.38733205 -0.16921893 -0.817614 0.45298386 -0.6198708 0.3290721 -0.0076735653 0.4590138 0.28363022 -0.08942863 0.21534415 -0.2316245 -0.08506045 -0.072760396 0.46361122 0.82296026 0.50803494 0.051776253 -0.06658029 -0.07127369 0.1896215 -0.025001623 0.3556242 -0.070052706 0.29830763 -0.09696816 -0.24880631 -0.35452366 -0.6080157 0.14752613 -0.22629629 -0.28539497 0.3474795 0.5399993 -0.12761447 -0.6360134 -0.002358791 -0.16036752 -0.921721 0.21303223 -0.27925444 0.05844164 0.10009465
22 0.48483542 0.10975124 -0.27601564 0.36999777 0.19364007 -0.4938947 -0.38175988 -0.14332114 0.2672621 0.22471987 -0.5037073 -0.9130579 0.13632639 0.13868779 -0.10162794 -0.09291022 -0.46782652 0.1770775 0.63152295 -0.11124369 0.19324149 -0.1340486 -0.64618814 -0.10764427 0.67682606 -0.19351569 -0.054460563 -0.052775834 -0.2687161 0.07339453 0.0012077469 -0.7836795 -0.4395588 0.4422113 0.26516598 0.5359445 0.208697 -0.079569206 0.015055917 -0.43961227 0.22653922 -0.5247002 0.9067089 0.03452868 0.028000616 -0.18015368 0.0751965 -0.20576628 0.06380885 -0.14327562 -0.3778735 -0.49422535 0.32651228 -0.19404733 0.3509123 0.013343034 0.29755273 0.12398674 0.14781223 0.12473847 -0.9704262 0.054360833 -0.088575915 0.12683298
35 -0.2210368 0.14086807 0.55793554 0.22780065 -0.13081783 -0.3699814 0.30258557 0.3851886 0.24621488 0.5197189 -0.26918876 0.25956342 0.18770014 0.07697452 0.9216088 0.6106844 0.46008244 -0.14989392 -0.17413779 -0.78852695 -0.22531603 -0.13714863 0.19739996 -0.1066594 -0.056546185 -0.08314529 0.11465539 0.17032102 0.3849889 0.45598412 -0.19742139 1.0099977 0.17758405 -0.14005549 -0.0911956 0.8535525 0.071379855 -0.21680662 0.27235693 0.23321442 0.48661056 -0.034109503 -0.6916699 -0.06487444 -0.36644724 -0.05783151 0.5157436 -0.4336223 -0.74635637 0.09542289 -0.04441755 -0.0133756865 -0.32019123 0.11756649 -0.20165648 -0.002570294 -0.76765877 0.3389388 -0.2069029 0.18036789 0.3125944 -0.1173456 0.0042895484 -0.1120852
63 0.3886818 -0.2368823 -0.08883444 -0.3805294 0.54206157 -0.14879732 -0.029703118 -0.048081532 0.010087622 0.0720182 -0.22350521 0.18026622 -0.18167214 -0.7711605 0.17037 0.015516152 0.33233562 -0.63596696 0.055819932 -0.6798992 -0.21331 -0.35233644 0.416055 0.36959073 0.17292707 -0.59918875 0.26113102 -0.25669357 0.527483 -0.44402856 -0.2217659 0.11509999 0.36809412 0.48497552 -0.42400396 -0.0125003215 0.10345092 0.38110316 -0.8428012 -0.10810146 0.6003976 0.19609076 0.06739066 0.3175055 -0.12587363 -0.120120525 -0.18468544 -0.11396947 0.06200469 -0.2566854 0.36181256 0.2200525 -0.56278443 0.35217607 0.98949546 0.111393936 -0.009228573 -0.25157282 0.4854781 0.01921848 0.21648867 0.5327344 -0.26895195 -0.22185692
42 0.1429437 -0.37600738 -0.14604789 -0.46095815 -0.1708287 -0.06398196 -0.4128252 -0.0064995247 0.09257566 0.40636837 -0.33416522 -0.41460717 0.714548 0.0061807577 -1.3486248 0.018014817 0.080675624 0.23474583 0.48494884 0.20680867 0.3705762 -0.20961086 -0.16360123 -1.0275551 -0.3111024 -0.20029546 -0.26349697 0.19392474 -0.4415533 0.0044545694 -0.31194398 0.3814756 0.15828116 0.11477834 -0.21127127 0.41917947 -0.73617035 0.07537177 -0.4491426 0.5440443 -0.23343103 -0.4508908 -0.3481748 -0.24887653 0.5120536 0.19148493 -0.2716977 -0.18591355 -0.23578592 -0.22274056 0.85162026 -0.10883444 0.50048006 -0.20619218 0.21845715 -0.19234931 0.014416084 0.14049052 0.027209511 -0.22270046 -0.1825556 0.48004386 -0.013310324 0.0882678
49 0.38457832 0.3646597 0.7366808 -0.1944639 0.3481198 0.026758015 -0.6900321 -0.45924452 -0.46863475 0.024205983 -0.5872418 -0.22654127 -0.45163256 -0.0056091817 0.23469365 0.43781593 0.26948696 0.581683 -0.18745331 -0.611074 -0.9439762 -0.1437049 0.99917555 0.11761412 0.27703995 0.096359506 0.0168157 -0.021505892 0.21974784 -0.08436915 0.25539953 -0.55317616 -0.036302574 -0.13765797 -0.245842 -0.5807979 -0.29129687 -0.114301085 0.11185097 -0.3007253 0.5971457 -0.20617752 0.044382714 -0.000589891 0.06241998 -0.20775077 -0.68778753 -0.23080117 0.046917547 -0.072602995 -0.06750963 -0.19708917 0.7577634 0.38164613 0.20154357 -0.25584668 -0.16548045 0.26863527 -0.08951838 0.07923659 0.19290729 -0.10397246 -0.036241874 -0.61866504
34 0.006343058 -0.15953803 0.13697948 -0.33685145 0.43298605 0.62209976 -0.16712567 -0.24719499 -0.60447586 -0.098109916 -0.18306959 -0.1878748 0.2089307 -0.21008395 -0.044754162 0.5041808 0.3346838 -0.5207217 0.4724434 -0.11978283 -0.70001477 0.07302405 -0.1462008 -0.7541276 0.21678272 0.7135075 -0.21977024 0.05857423 -0.6505315 -0.0776576 0.05643119 -0.048268944 0.36757272 0.09554083 -0.034335338 -0.13762128 -0.82210755 0.5043292 0.5138955 0.10289883 -0.027066879 0.80900675 -0.5133798 -0.0074041607 0.09485183 0.025250047 -0.535127 -0.15456533 -0.20578642 0.16923292 0.7002757 0.173785 -0.50799745 0.47538492 0.06567214 -0.25895548 0.22090308 -0.21501003 0.037009347 -0.086241715 0.06337639 0.59264743 -0.15004991 0.010128624
14 0.43981808 -0.041995574 -0.093272686 0.44092685 -0.08864091 0.34790194 0.04820578 -0.25309828 0.7704768 0.38411385 -0.2680702 0.21345715 -0.16500695 -0.06361785 -0.21981932 -0.35880858 0.029968962 -0.138056 0.09946626 -0.5352589 0.22701827 0.7823897 -0.35963252 0.14635247 0.3046127 -0.05043451 -0.03245767 -0.65307873 0.18861596 0.14273597 0.16989857 -0.06127308 -0.39766252 -0.043475367 -0.20957547 0.23200265 0.5096187 -0.007755416 0.07189637 -0.30545813 0.06292638 -0.23458813 -0.08523896 0.12041578 0.6273837 0.44670698 0.19387043 0.5747096 0.30097947 -0.1737091 -0.28362003 -0.050074697 -0.22976485 0.21688108 -0.16033176 -0.17121337 0.41013774 -0.3749252 0.7421973 -0.71928674 0.24034837 -0.46188533 0.32732975 0.1435292
82 0.16218278 -0.55231965 -0.026715526 0.34228504 -0.17884618 0.44097504 0.22463502 0.10956193 -0.1626878 0.006884352 -0.3687948 0.17106256 -0.12130592 0.15860774 0.20768496 -0.511039 -0.35271496 -0.343719 -0.6602395 -0.5471901 -0.2750751 -0.0034388152 -0.081012405 -0.8363387 0.529156 0.59002155 -0.23446143 -0.27480453 0.28946158 0.29966563 -0.34284043 -0.16865958 0.014606439 0.40429807 -0.7438897 -0.3865698 0.14747202 -0.024822371 -0.24097785 0.2797362 0.095924675 0.19247727 -0.684287 0.045098864 -0.6013798 0.5591688 0.4183691 -0.20927702 0.03886167 0.078723684 -0.56921136 0.69496715 0.023036726 0.20346338 0.47943583 -0.025396658 0.589586 -0.075906485 -0.41938692 0.059127618 -0.19618393 -1.2036351 -0.33418533 -0.11009428
97 0.313279 -0.6376391 -0.4114608 -0.16198018 0.5302667 -0.09144373 0.29527217 0.13186839 0.35312888 0.33666664 -0.21050914 0.17458393 0.07688638 -0.0018169755 -0.25881678 -0.18048377 0.32978144 0.38471895 0.1361983 -0.38377565 0.3215478 -0.42180845 -0.16473874 -0.36244127 -0.10084372 -0.3051729 -0.21834807 -0.36345434 0.054848034 -0.41743276 -0.32531253 -0.09740333 0.14924526 0.31738365 -0.11973097 0.39782816 0.4386623 0.47198775 -0.11908532 -0.49731523 0.24515937 0.5415095 0.25166568 0.50711 0.28277144 0.029787786 -0.5373179 0.37106138 -0.1180236 0.083370335 0.2188111 0.26248765 -0.37770572 -0.40459445 0.43219483 0.41306445 -0.16414791 -0.33359697 0.5192622 0.3437145 0.23602866 -0.10363295 0.5331669 -0.04670507
24 0.13320592 -0.1832243 0.3312453 0.20225546 -0.5004285 0.18014663 0.6351853 -0.08722392 0.15100792 0.08305191 -0.4979247 -1.2105179 -0.41784328 -0.23858339 -0.3469723 -0.5049495 -0.9256455 0.5616814 0.48343936 0.14103137 0.28295362 -0.5943751 0.4744423 0.11682992 0.4808863 -0.24392928 0.07583163 -0.45970377 -0.40922582 -0.44907674 -0.18793404 0.044184983 -0.2417805 0.66488665 -0.5102172 0.076479 0.32690278 0.036302704 0.2760274 -0.38611385 0.9812739 -0.045023963 0.059086185 -0.66898334 0.072159335 0.112512305 0.14448513 -0.2686632 0.04782612 -0.6339967 -0.6502602 0.06280178 0.7286852 0.32953212 0.19987689 -0.6090665 0.05494598 0.34394437 -0.558948 -0.63170546 0.30771288 0.1201453 0.28643373 0.47106078
6 -0.225143 -0.31987965 0.40343878 0.089607336 -0.08171763 -0.9170347 -0.3343555 0.054666832 -0.13077943 -0.5094982 0.27821496 -0.5818816 0.046652306 0.4653525 0.58735126 -0.4773303 -0.24750672 0.18903719 0.2181108 0.13166827 -0.22766939 0.48728403 -0.5468638 -0.43305668 0.18956618 -0.55806786 -1.3853648 0.0764205 0.015865853 0.080926836 -0.80734247 0.17887273 -1.1396173 0.08463093 -0.57627153 0.65806127 0.020341601 0.31715286 -0.06074054 -0.39757878 0.16154909 0.60257775 -0.22568516 -0.08956086 -0.09211077 0.37203896 0.12989521 -0.6215728 0.21134491 0.20647544 -0.05009585 0.5308934 0.13885558 0.021218887 0.8041759 -0.22530568 0.31267998 -0.37029684 0.2415325 -0.8674708 -0.43631878 0.038816888 -0.010171455 0.09791068
71 -0.15230009 -0.47756648 0.28000125 0.014342212 0.25334826 -0.870563 -0.08218873 0.0693775 -0.10532839 -0.13823336 0.0031835127 -0.39073023 -0.032841127 0.69912195 0.7533166 0.075648166 0.46432582 -0.25168064 0.41672087 -0.15266357 0.4507826 0.039759144 -0.082710095 -0.13979231 0.765985 -0.19321716 -0.19442327 -0.13816716 0.045836795 -0.2307512 -0.06529936 0.14123268 -0.25159377 0.16345824 -0.3442645 -0.22542994 0.45727372 0.23453669 -0.2117323 -0.14786026 0.26308239 -0.022095395 -0.3298408 -0.07909617 -0.22779837 -0.8340298 0.13977288 0.038671415 -0.04185064 -0.016382605 -0.21150477 0.8067561 0.23702401 0.28638572 0.60296065 -0.058228683 0.31731585 0.002498398 -0.19407241 0.15876661 -0.2444004 0.26219115 0.011768342 -0.17331542
87 0.25027502 -0.019316649 -0.6648503 0.5384625 -0.31746832 0.11533621 -0.32978648 -0.3416578 -0.44773626 0.7944457 0.052760236 -0.5057315 0.0742213 1.0603961 -0.43276286 -0.06690619 0.31598613 1.1073453 -0.2580235 0.15940231 -0.5982611 0.50381017 -0.03575368 -0.38595542 0.432576 -0.17300229 -0.26541325 0.10079823 0.13480534 -0.10104731 -0.0629286 -0.086326145 -0.14912555 -0.6047996 -0.48694086 0.4173225 -0.5210546 -0.025444774 0.21996157 -0.3517959 -0.102619104 0.12927602 -0.111859515 0.038218733 0.03879485 0.6540766 -0.4036617 -0.043486066 0.035771236 0.10903197 0.16727807 -0.45224908 0.7797921 0.45246634 -0.035153188 0.073463455 0.16673903 -0.0984349 0.32665563 -0.087999575 -0.17815726 0.36493608 -0.8093145 -0.18532245
1 -0.38562807 -0.21239229 0.29605362 -0.7065613 -0.05244221 -0.3863989 0.023350878 0.18589427 0.20549603 -0.20702994 -0.3813537 -0.10635315 -0.32830667 -0.093070306 0.42340657 0.019503552 -0.18319812 0.7678455 0.38983932 -0.5194148 0.41418672 0.16538663 -0.13849992 0.20400304 0.04028315 0.21042298 -0.36672753 -0.48401505 -0.16068733 0.24078825 -0.078892946 0.49175632 0.5617195 0.2679191 0.051052805 0.7503992 0.53061813 -0.2466874 -0.07656281 0.27037507 0.0710034 -0.012841556 -0.70332694 0.11405688 0.378358 0.15823306 -0.07534039 -0.0005433732 0.118917085 -0.04993047 -0.14168951 -0.044698745 0.6951923 -0.529822 0.09356929 0.58280134 -0.29288426 0.4704425 0.3424585 0.72727394 0.8361338 0.061510883 -0.19339706 0.06751939
23 0.40961632 0.14875863 -0.2652594 -0.075702 1.0505528 0.6753617 -0.13343945 -0.19138992 -0.38962317 0.09497526 -0.32079455 1.0530257 0.95214623 -0.3164647 0.17449915 0.46940443 -0.048764847 -0.77492714 -0.31221962 -0.28782836 0.13137849 -0.1490545 -0.29226065 0.10280807 0.053625185 0.27499148 -0.44816473 -0.34832162 -0.24208787 -0.21182942 0.14479722 -0.6206538 0.09152911 -0.040875312 -0.14119796 -0.20557302 -0.19205566 0.4710517 0.49335656 -0.24904875 -0.032866027 0.23255205 -0.49064913 0.12374787 0.58131003 -0.2764432 -0.23746075 -0.17130217 0.6312919 0.37715477 -0.2941554 -0.5171808 -0.5950167 -0.14341222 0.3430876 -0.8988633 0.4630083 -0.48363551 0.45933655 0.099922456 -0.33558935 0.10178728 -0.14663856 -0.096227564
18 0.30406892 0.11359786 0.27669215 0.02210303 0.6305981 0.3992314 -0.5377245 -0.75761926 0.079008564 -0.317332 -0.24026337 0.12084418 -0.35284293 0.0008015109 0.97032773 -0.030748118 -0.16352874 0.06280286 0.32618865 -0.8343561 -0.53721964 0.5075601 0.56114906 0.08735732 0.31060642 -0.32733613 0.07511067 0.29099748 0.50171983 -0.42313752 -0.113778725 -0.27817148 1.0010064 -0.39343676 0.14699663 -0.0057030665 0.62970054 0.33854535 0.47366565 -0.110347986 0.24586825 -0.122952834 0.42520633 0.1344324 0.09818154 -0.37357482 -0.47670168 0.27065912 0.33111235 0.2744001 0.38062182 -0.016414471 1.2470992 0.007674048 0.23087205 0.07963233 -0.3227346 -0.22827916 0.88090074 0.21085645 -0.4780021 0.55200166 -0.13898465 0.3278352
55 0.40893343 -0.30220813 -0.25391608 -0.13274512 -0.08072347 -0.004849162 -0.3010585 0.23932166 -0.21466084 0.22261463 -0.24879426 -0.36352423 0.22243899 -0.30141193 0.30912268 0.089681335 -0.103127144 -0.016091585 -0.010105529 0.23341314 0.025172114 0.10091419 0.55497146 -0.4776519 -0.18849657 0.41050258 -0.12691155 -0.48136595 0.53727984 0.31599432 -0.22294848 -0.20454034 0.12492888 -0.35822037 -0.5908122 -0.5137079 -0.16999333 0.13663532 -0.7387548 -0.07378522 -0.1745656 0.5132622 -0.9981863 -0.3205012 0.36732152 -0.84398293 -0.3712709 0.3752813 -0.3247932 -0.56892407 0.24488117 0.28397164 0.37576038 -0.021740131 0.3902531 -0.19594963 0.6687613 0.15175892 -0.20665161 -0.035022635 0.35364935 -0.30036068 -0.31561813 -1.3578063
76 0.43145293 -0.043242402 0.14047788 0.6276449 0.02258823 0.25087303 -0.21361849 0.21196504 0.15488066 0.13856475 -0.15991981 -0.32815263 0.15981512 -0.1196925 0.3327758 0.9595284 0.68870986 0.065033585 0.35467964 0.102017075 -0.2433291 0.13755429 -0.48633796 0.8155503 -0.58608365 0.31483454 0.13875291 0.7238325 0.12735973 -0.0625656 -0.04570123 0.75868005 -0.4987728 -0.2570545 0.27563193 0.33019546 -0.6215485 0.4156724 -0.2724978 0.24415746 0.5361808 -0.013755724 -0.40535888 -0.49248874 -0.054431263 0.10991371 -0.14682351 0.68489146 -0.39746732 -0.02270389 0.045984354 -0.0751131 0.040528994 -0.23114228 0.12277081 -0.48915648 0.42253724 -0.00985466 0.64264274 -0.32841697 0.39657548 0.8547393 -0.061521597 -0.25288907
12 0.52846575 0.17918223 0.2803574 -0.41599256 0.12066614 0.17222223 0.13896364 -0.29477307 -0.29720196 -0.047017697 -0.041858755 0.35530102 0.42866006 -0.9511082 -0.5814811 -0.58228225 0.02979401 -0.15279226 -0.24401419 -0.21516557 -0.42019033 -0.011529027 0.23398767 -0.18534733 -0.05321182 -0.88923115 -0.71960205 -0.5931755 -0.24269739 0.2680334 -0.1312686 0.048237085 -1.0860002 0.034562483 -0.7344094 0.6739449 0.25636795 0.7313568 0.32757604 -0.5376971 0.39007476 0.33459437 -0.5698548 0.17545186 0.3388445 0.42526472 -0.09573948 -0.4808032 0.52155995 0.24157046 0.16762857 -0.43056366 -0.21783099 0.06691522 0.8797025 -0.6897135 -0.3415382 -0.3279405 0.15391847 -0.9634416 0.110322826 0.1886744 -0.09010896 -0.029746568
0 -0.22079813 -0.3209643 -0.19149812 -0.11471495 0.047049765 0.48506647 0.092754506 0.28593782 -0.18150063 0.5727085 -0.02915083 -0.84812444 0.25674468 0.6418769 -0.67644405 0.71471024 0.9661481 0.8134255 0.6576376 -0.19637853 -0.6681083 -0.05056695 -0.39578766 -0.29291773 -0.14788237 -0.4702463 -0.5926805 0.61710376 -0.050663386 0.32924017 -0.92882776 -0.23015375 -0.093512595 0.035350356 -0.109217115 -0.61488914 -0.97466666 0.03027284 -0.16974019 -0.35814735 -0.20680256 -0.1815925 0.024638582 -0.98479563 0.17371947 0.29424986 0.10920715 -0.06606712 -0.086883575 -0.4283646 0.7213688 -0.45210746 -0.0976192 -0.36122128 -0.067466915 -0.5050426 -0.30397895 0.34295174 -0.2681801 -0.58774936 0.030893268 0.025215933 0.29908985 -0.551837
69 0.2758558 -0.42395973 -0.05758186 0.256163 0.039166976 0.24687453 0.37228352 0.45166117 0.26340777 0.53343236 -0.34008977 0.067064635 1.2115887 -0.08375384 -0.22393619 0.24302545 0.20266923 -0.20644638 0.3750077 0.038756743 0.45877865 -0.37540752 -0.20477304 0.42996162 0.34681022 0.19574906 0.35624328 -0.3199388 0.094415404 0.38172403 -0.0059969025 0.25636822 0.40263996 0.14628932 -0.36335567 0.16345218 0.045455582 -0.15888199 -0.14432515 -0.09444145 -0.17958562 -0.51832366 -0.8135589 -0.15994209 0.47445855 -0.061490566 0.69882715 0.5463434 0.120468296 -0.5255257 -0.15099064 0.28179753 -0.31028625 0.1942829 -0.38635218 -0.16531521 0.22545116 0.20595151 0.22154331 0.105978 0.21215864 0.02956581 0.4756446 -0.40975735
32 -0.28202844 -0.2676056 -0.5578267 0.0795782 0.45017445 0.25956738 0.30249816 0.078439385 1.0863551 0.43173945 -0.5611673 -0.31057873 -0.46063417 -0.2931266 -0.35928833 -0.18127537 -0.124152645 -0.19889215 0.42326158 -0.062811136 0.41619694 -0.017736627 -0.52662355 -0.59453833 0.31799367 0.7101914 0.27605233 0.020957245 0.12840907 -0.08022916 -0.31094968 0.27392572 0.7876704 0.6107927 -0.550309 0.22549441 -0.108194135 -0.4011028 -0.4457104 -0.078791305 0.047366414 -0.032268595 0.30240965 -0.009809521 -0.259965 0.469213 -0.2655873 0.012120629 -0.44845894 -0.4763296 0.040253766 0.18872203 -0.43984395 0.3805717 0.2852772 0.10193939 0.2501267 0.21951568 -0.3421649 -0.008932946 0.1044042 0.23263623 -0.28327277 0.2901439
48 -0.06491014 -0.5669793 -0.2762096 0.1349641 0.11217711 0.20301956 -0.018919533 -0.3382427 0.18280888 -0.23346688 -0.36403295 -0.8964202 -0.05745565 -0.90813804 0.34351298 0.3169748 -0.16610521 -0.36830214 0.81925666 0.017503658 -0.18714336 0.39374235 0.0645636 -0.21309091 0.5558198 0.0976494 0.23359023 -0.5890822 -0.476352 -0.6249117 -0.07854556 0.10029509 0.85464054 0.40915632 -0.15292543 0.21206574 0.40720487 0.60218453 -0.65518147 -0.27027723 0.20811349 0.16603678 0.15988183 -0.25387883 -0.100143515 -0.5107303 0.24590819 0.25658023 0.30271593 -0.96973485 -0.35154337 0.15576941 -0.24166885 0.22704947 -0.14956014 -0.23195577 0.40735853 -0.029188205 0.42640004 -0.722922 -0.08268637 0.82088476 0.09848037 0.64343226
44 -0.52625376 -0.39751884 0.24594304 -0.28251377 0.4600758 -0.19072554 -0.0560062 -0.016716292 0.27496713 -0.12256513 -0.146423 0.45719406 0.37861028 0.8032669 0.6409061 0.41209266 0.16720076 -0.29955876 0.176173 -0.3701892 0.4611442 0.55214447 -0.22359271 -0.21919727 -0.2623245 -0.49098068 -0.31447938 0.063235275 -0.5269845 -0.00041846564 -0.26256526 -0.029421331 0.22684203 -0.14775462 0.06832394 -0.37973332 0.0038282091 -0.22780718 0.78297853 -0.029574163 0.07057656 0.003734371 -0.045632586 -0.48386788 1.0134213 -0.10271661 -0.6512183 0.25659063 -0.4694184 -0.40207008 -0.13108952 -0.77978796 -0.23314539 0.322135 -0.26641476 -0.5186131 -0.55809 -0.0687878 -0.071043685 -0.3097699 0.22456768 0.24381672 0.9013517 -0.121497415
9 0.29719594 0.13281608 0.48401394 0.33733043 -0.6431301 -0.028609825 -0.681814 0.16446315 -0.69789004 -0.1612782 -0.12669654 -0.7049643 0.09737342 0.46451625 0.30875856 -0.23315498 -0.052186396 0.10501876 -0.31673014 -0.0502666 -0.7675739 0.06363832 0.02097882 -0.40110916 0.037786126 0.25354412 -0.098354526 0.4082311 -0.06648995 0.01680947 0.15919045 0.34411705 -0.7225223 0.18942939 -0.26130936 -0.35144383 -0.7957839 -0.050994992 -0.052536424 0.3387843 0.1493107 -0.25018817 -0.62938464 -0.41196537 -0.28094718 0.73824275 -0.0036203775 -0.54742515 -0.013712148 -0.077853344 -0.348105 -0.15581326 0.7493292 0.6216241 0.23826769 -0.3958988 0.4385281 0.22073255 -0.5065129 -0.45215055 -0.27964795 -0.12553537 -0.24300197 -0.4918231
54 -0.016805703 -0.53103226 0.069464654 -0.15858667 -0.27526018 -0.5704612 -0.11535247 -0.13004449 0.24160157 0.0033743312 -0.35325813 0.21994986 0.18699461 -0.13829751 0.06706643 -0.32948932 0.02673542 0.11046922 -0.36432797 -0.39348593 0.39506447 0.25111094 -0.3421904 -0.5873543 -0.19290604 -0.7349054 -0.25120282 -0.8428735 0.30241755 -0.074121445 -0.25163946 0.7362556 0.24716881 0.32174444 -0.16083 0.34112132 -0.3866406 0.21467833 0.044283465 0.07466339 0.04507024 0.3660728 -0.49734163 -0.10966417 -0.07538495 0.98862135 0.2855892 -0.89471287 -0.19973359 0.26078814 0.21096173 0.016556399 -0.15992509 -0.03205647 -0.24920781 -0.077849366 0.35491267 -0.5803305 -0.18288171 -0.4526127 -0.7424689 -0.19745637 0.31476074 -0.27884048
56 0.3557696 0.10512141 -0.35126334 -0.19080794 0.30789003 -0.28902406 -0.9784455 -0.06412655 0.70529467 0.06261423 -0.5447201 -0.64373606 0.048210934 -0.2691329 -0.25160384 0.21890135 0.77896166 0.024583083 0.22732255 -0.05036496 -0.171105 1.0659225 -0.2160233 0.14660561 -0.5039935 -0.11409844 -0.15944685 -0.36569044 0.2501911 -0.08061815 0.18441792 -0.08127107 -0.27827922 0.40986502 -0.32988608 -0.40446493 -0.61104524 -0.22011268 -0.3729419 -0.29008707 0.02028664 0.18297693 -0.013795795 -0.22399944 0.5421531 -0.007591082 -0.69610727 0.46326542 0.19062424 -0.33513996 -0.059929375 -0.25567302 -0.24599078 -0.106013134 -0.1946346 -0.4733529 0.5586763 -0.3798037 -0.26998147 -0.6031952 0.08923096 0.30071396 0.19931547 -0.60172266
86 0.36754018 0.2088648 -0.7869175 0.38544708 -0.17361939 0.21937038 -0.49562147 -0.35642388 -0.95278674 -0.12222591 -0.18367349 -0.6532963 0.35061172 0.77292186 1.0547707 0.8013472 -0.03938635 0.3887672 -0.18488331 0.2290358 -0.83507323 0.15095295 -0.006648021 0.17873926 0.63521147 0.40971193 0.40910938 -0.21126449 -0.0007512112 -0.21453753 0.390282 -0.47671723 -0.08412745 0.09215886 -0.52335876 -0.19797246 -0.43730116 -0.062337015 0.3686464 -0.3162949 0.09836643 0.40940142 -0.25599274 0.031608805 -0.13229157 -0.42441085 -0.19574721 -0.0661201 -0.13169023 0.4858134 -0.54239327 -0.7602917 -0.33681417 0.57240945 0.07939572 -0.25466126 0.2528921 -0.015658027 -0.15299745 0.78529346 0.4772059 0.43439132 -0.57784075 -0.62124956
85 0.37497023 -0.43436047 0.4808643 -0.15656208 0.10518418 -0.060176175 0.21225667 -0.39684057 -0.13925083 -0.63874614 -0.2718338 -0.28843877 -0.5547608 0.059898753 0.23004028 -0.6284563 0.7014514 0.84080714 0.45803544 -0.29347026 -0.03251307 0.44732025 -0.4130004 -0.28439337 0.19578013 0.35069457 -0.15681861 -0.46728575 -0.4279449 0.37208614 -0.013947 0.07016689 -0.6881571 0.32349518 0.5760893 0.18339238 0.87266046 0.10744286 0.54145795 -0.14014404 0.084333174 0.16268852 -0.6164971 0.08277467 -0.64918125 0.15514486 -0.07514642 0.40570763 -0.84205043 0.32911417 0.7966701 0.47408277 -0.25400993 -0.022942172 1.0542759 0.43924257 -0.60076743 -0.40538624 -0.35101473 -0.37347195 -0.57711786 0.28127477 0.011256227 -0.3466209
75 -0.04686628 -0.35236079 0.73793626 -0.12326305 0.3389571 0.418957 -0.3140487 0.0011220238 0.10803705 -0.35864282 -0.280948 -0.17535032 0.1707913 -0.043483097 -0.07403716 0.047214672 0.34081987 -0.3006018 0.26104942 -0.0043017827 -0.14738554 -0.04890129 -0.34741068 -0.4231228 -0.039236393 1.0530162 -0.7885013 0.53025526 -0.4911683 -0.33438727 -0.12511396 -0.12567073 -0.55206066 0.27213663 0.13456099 0.34193385 0.59052193 0.08090248 -0.13497716 0.349239 -0.26095125 0.18131489 -0.3420287 0.5773228 0.5421997 0.25304425 -0.5265386 0.4625459 0.081477106 -0.535511 -0.017460553 0.74622506 0.25140244 -0.13334511 0.42018956 0.15267552 0.24392667 0.25062838 0.8925854 -0.2441601 -0.45427048 -0.2068831 0.5665297 0.23526174
8 0.267684 -0.057762604 -0.045763113 0.3316709 0.14248933 0.50779694 0.38711295 0.14952092 -0.020834645 0.25229102 -0.13213363 -0.049553636 0.5278353 -0.18396156 -0.13920903 -0.27478644 -0.16417523 0.13640623 -0.31741217 -0.21935473 -0.23964442 0.3442197 0.55452967 -0.20898707 -0.19583055 0.0072320425 -0.22550203 -0.2294215 -0.22859757 -0.5822381 -0.51295626 -0.37846628 -0.23646995 -0.06270234 -0.630675 0.12185812 -0.040278304 0.040425837 0.86183524 -0.53821373 -0.015539185 0.9552957 -0.65795594 0.10787867 0.81819093 0.21896999 -0.72432023 0.17453821 -0.39706522 0.009494744 -0.12804437 -0.00514989 0.051486775 0.15971483 -0.13610381 -0.579371 0.099295005 -0.45186946 -0.17140363 -0.6497309 -0.004373245 -0.28457192 0.97932935 -0.2760086
92 0.009735501 -0.22106983 0.017708024 -0.46666327 0.6106466 0.23895705 0.66251594 0.3021903 -0.1699934 -0.10738943 0.42495137 0.06053408 -0.2574275 0.06430261 0.08816243 -0.69830304 0.20230113 0.20713039 0.0100347055 -0.79865545 -0.08692077 -0.13383415 -0.050009206 0.5060739 0.32417357 -0.628184 -0.43702662 0.059483625 -0.08774927 -0.18010922 -0.7631222 -0.31676808 -0.2206739 0.0108675705 0.079624385 -0.27779385 0.74859834 0.13653009 0.284917 -0.78844917 -0.38793203 -0.5115687 -0.045586642 -0.141673 0.39764065 0.29798722 -0.37372184 0.290276 0.08867715 -0.7266132 0.10778766 -0.6659523 0.16608353 -0.09998807 0.5976199 -0.6242107 -0.5069801 -0.006040784 0.93029845 -0.024317274 -0.25534567 0.6481914 0.40986258 -0.57333845
5 -0.1997171 -0.21933316 0.26894647 0.019199591 -0.21939649 -0.33583617 0.06346829 0.5409557 -0.09907768 0.49577877 -0.33947578 -0.42624372 0.95307046 0.83721876 0.617456 0.046693068 -0.14898586 -0.6501176 0.17973568 -0.275839 0.3881199 -0.6522624 0.11541558 -0.92996234 -0.014162777 -0.16865726 0.14192076 0.06079059 -0.2656203 0.19860981 0.15316293 -0.10870122 -0.4835124 -0.21762396 0.23023766 0.2597814 0.4888775 -0.24359556 0.33461735 0.004833368 0.16334367 -0.19802447 -0.13701545 -0.23152827 0.63728714 -0.9408842 -0.037047774 -0.021781905 -0.6264433 -0.4694317 -0.74592865 -0.38906896 -0.024527362 0.21332584 0.14490128 -0.001612259 -0.7158146 0.6896069 -0.576944 -0.14197361 -0.20886755 -0.4962557 0.6176171 -0.11981534
28 0.33525902 -0.11103264 0.1510468 0.31999838 0.16527717 0.13500217 -0.0019989924 0.18949552 0.48830292 0.028667772 -0.22420506 -0.13136925 0.3377023 0.08440272 0.33755964 -0.10078387 0.16330469 -0.45359603 0.5812765 0.41538775 0.8081679 -0.3435305 -0.30075243 -0.5415915 -0.38912714 0.70239985 0.24807511 -0.2294873 -0.6304309 0.011992647 0.51259214 0.52129126 -0.110743836 0.058096677 0.5291158 0.25881356 0.46042895 0.50818896 0.9213264 0.13475163 0.107426904 0.33578765 -0.3696491 -0.44500372 -0.03507809 -0.48102093 -0.7678643 0.56450033 -0.46125594 -0.51222616 0.4027776 -0.29948643 -0.7252924 0.88326526 0.7788137 -0.16382514 -0.4646078 -0.44035363 -0.54033077 -0.47055802 -0.15698291 0.91832185 0.116824545 0.2122455
65 -0.7081868 -0.4804345 0.3861882 -0.6917491 0.45509472 0.45996398 0.14688751 0.6012758 -0.1314491 0.44674623 0.018736087 0.60948455 0.5118258 0.44930696 -0.14866816 -0.28714007 0.92720073 -0.0030478828 0.3058128 -0.8633687 -0.40882236 0.13180341 0.116992116 -0.65751404 0.08651637 0.5452823 -0.8957516 -0.20931748 0.10016579 0.64282876 -0.12301553 0.255543 0.8742589 -0.56002736 -0.29758462 -0.2859109 0.39264157 0.1277214 -0.23015213 -0.51499397 -0.558286 -0.42523628 -0.6417322 0.015376606 0.24590655 0.09838692 -0.12955382 0.70140487 0.76087534 -0.6989068 0.29380208 -0.0020978486 -0.040872045 0.7031704 -0.1004806 0.37620592 -0.8581314 0.63690954 0.46561283 0.035403233 0.4346615 -0.2994314 0.0966944 -0.18793243
17 0.29069716 -0.064950064 -0.031850856 0.4123386 -0.4726065 -0.13769427 0.2885467 0.068400204 -0.050106913 -0.021565082 -0.45454496 -0.4275923 0.3672344 -0.15571277 0.96093273 0.260051 -0.33002505 -0.3019031 -0.55310094 -0.44229388 -0.45401177 -0.5371627 0.24067912 -0.59359455 0.4819287 0.22344305 0.783441 -0.050896235 0.3247719 0.19942614 -0.050837647 -0.1275223 0.19310716 0.09222782 0.36551806 0.46264428 0.5148554 -0.031048194 0.5067089 0.41221663 0.18398726 -0.12290044 -0.34150052 0.36608595 -0.26403874 -0.18533912 0.04955077 -0.5777335 -1.0415026 -0.22548063 -0.3927017 -0.28046823 -0.20330669 0.44824535 0.024464024 0.087829724 -0.34780613 0.3548733 -0.25684345 0.630881 0.11086922 -0.564504 0.2430709 -0.50648314
80 0.18618295 0.38745275 -0.25296208 0.8372235 -0.062131524 0.41446525 0.24756837 0.07823769 0.7022988 0.93349975 -0.37513444 0.6150418 0.39777994 -0.11727845 0.27992526 0.21880682 -0.19805057 -0.044124134 0.01921196 -0.41193032 0.3382959 -0.22031672 0.11882986 0.12852953 -0.42160484 -0.26265055 0.18561648 0.4738712 0.71670175 0.15840758 -0.22264661 1.1315432 0.14413118 -0.29267383 -0.7435643 0.9568047 -0.27972332 -0.24213146 0.35463277 0.4904971 0.6123475 0.06318194 -0.47169235 -0.4046162 -0.009688812 0.73282945 0.5956831 -0.35604376 -0.11368965 0.77104914 0.24890204 -0.1970995 0.44691992 -0.117952585 0.05345114 0.122075 0.018831678 0.12329456 -0.10494072 0.21682939 -0.0854174 -0.01672235 -0.5314063 0.18557903
19 0.20261644 0.22667716 -0.55180895 0.031330563 -0.040601306 0.69844973 0.2740839 0.14644918 0.05852637 -0.08543204 0.2814192 0.005342535 0.041623708 0.08207215 -0.0688882 0.0022342233 -0.14853908 0.35152894 -0.32601818 -0.823197 -1.4614635 0.1427645 -0.18919863 0.16496553 0.628057 0.0062289513 -0.4477983 -0.030266965 0.4416938 0.27302945 -0.5397845 0.04154627 0.5236645 0.47793004 -0.98402923 0.47945797 0.018037217 -0.018251056 0.3111719 0.070262924 -0.4926352 -0.33140358 -0.30405065 0.33851582 -0.061404675 0.894258 0.13228698 -0.09113048 0.295232 0.10228916 -0.23715895 -0.30079606 -0.18786778 -0.048295777 -0.3242289 -0.03686715 -0.057901673 -0.109673806 0.9653121 0.79471046 0.49739423 0.08843738 -0.041148275 0.08696814
60 0.4209288 0.18310007 0.23756692 0.13441075 0.5671763 0.048869032 -0.1370526 0.04443227 0.41383767 -0.25976875 0.17081277 0.23134594 0.025043743 0.79786986 0.3430089 0.25260136 0.27002305 0.26145932 0.35453218 -1.0772936 0.24152867 0.014718994 -0.22349127 0.32928878 -0.22810978 -1.0371349 -1.083744 0.32892555 -0.2258438 -0.118348554 -0.7980511 -0.60567385 -0.60472494 0.34174457 0.41516644 0.037407003 0.57135755 0.418521 1.065212 -0.23408327 -0.2626994 -0.11563243 -0.16767727 -0.655579 0.55790126 -0.18525226 -0.29027727 0.11221211 0.28861248 0.39864892 0.4254759 -0.7242095 -0.13763452 -0.8844175 0.6813573 -0.37680736 -0.7687756 -0.6692003 0.017756194 0.27339113 -0.72665536 0.41019887 0.6131063 0.46767163
30 -0.5777779 -1.0200224 0.5374988 0.2707729 0.65710247 -0.5939596 -0.14442596 0.23228599 0.83711904 0.067424685 -0.13906592 -0.26575547 -0.37115562 0.5511813 0.014299885 0.011333325 0.25051743 0.30324376 -0.013391078 -0.29207206 0.31643125 0.113367274 0.2662764 0.16978815 0.18801767 -0.18018742 -0.0856546 0.23126785 0.36371565 -0.6916497 -0.30823383 0.045165807 0.70917094 0.22452441 -0.32133484 -0.38749617 -0.2053152 -0.10914054 -0.5027512 -0.57675666 0.9037474 0.24104387 0.22055036 -0.02783232 0.032024175 0.38215652 -0.9701277 0.0065922756 -0.3778149 -0.91275746 -0.1430086 0.730158 -0.0344994 1.3825922 0.034295734 0.076495714 0.12525058 0.12002181 -0.22591598 -0.74394274 0.7541059 0.07069279 0.49116388 0.27283025
72 0.056432348 0.3509421 0.55955416 -0.48522395 0.37612662 -0.6050706 -0.15385549 0.4107005 -0.32198972 0.73555166 -0.2768904 0.03188143 0.17930332 0.1607028 -0.20833607 0.29712301 -0.07368789 0.08365253 0.55346143 -0.6662173 -0.5282753 -0.23476785 -0.5175818 -0.31884548 0.29810974 0.30116653 -0.55644363 0.04777238 -0.38851646 1.6171833 0.24799033 -0.3289115 -0.33461457 0.014541298 -0.010338564 0.4957577 -0.5758376 -0.6662622 -0.086569235 -0.061862882 0.51400393 -0.74627995 0.11425879 0.17272711 0.35084066 -0.07892127 0.20259617 -0.4737053 0.10477228 -0.1951441 0.02881631 -0.39607814 -0.21853827 0.47922176 0.31259742 0.22082812 -0.8002213 1.0119635 0.5545566 0.43921578 0.8431019 -0.70544076 -0.2706502 -0.37941954
